<?xml version="1.0"?>
<!-- DTD for the XMLBIF 0.3 format -->
<!DOCTYPE BIF [
	<!ELEMENT BIF ( NETWORK )*>
	      <!ATTLIST BIF VERSION CDATA #REQUIRED>
	<!ELEMENT NETWORK ( NAME, ( PROPERTY | VARIABLE | DEFINITION )* )>
	<!ELEMENT NAME (#PCDATA)>
	<!ELEMENT VARIABLE ( NAME, ( OUTCOME |  PROPERTY )* ) >
	      <!ATTLIST VARIABLE TYPE (nature|decision|utility) "nature">
	<!ELEMENT OUTCOME (#PCDATA)>
	<!ELEMENT DEFINITION ( FOR | GIVEN | TABLE | PROPERTY )* >
	<!ELEMENT FOR (#PCDATA)>
	<!ELEMENT GIVEN (#PCDATA)>
	<!ELEMENT TABLE (#PCDATA)>
	<!ELEMENT PROPERTY (#PCDATA)>
]>


<BIF VERSION="0.3">
<NETWORK>
<NAME>Network1-weka.filters.supervised.attribute.AttributeSelection-Eweka.attributeSelection.InfoGainAttributeEval-Sweka.attributeSelection.Ranker -T 1.0E-4 -N -1</NAME>
<VARIABLE TYPE="nature">
<NAME>unspecified_cough</NAME>
<OUTCOME>P</OUTCOME>
<OUTCOME>A</OUTCOME>
<OUTCOME>M</OUTCOME>
<PROPERTY>position = (0,0)</PROPERTY>
</VARIABLE>
<VARIABLE TYPE="nature">
<NAME>reported_fever</NAME>
<OUTCOME>P</OUTCOME>
<OUTCOME>A</OUTCOME>
<OUTCOME>M</OUTCOME>
<PROPERTY>position = (0,0)</PROPERTY>
</VARIABLE>
<VARIABLE TYPE="nature">
<NAME>age_group</NAME>
<OUTCOME>ls6</OUTCOME>
<OUTCOME>ge6ls65</OUTCOME>
<OUTCOME>ge65</OUTCOME>
<PROPERTY>position = (0,0)</PROPERTY>
</VARIABLE>
<VARIABLE TYPE="nature">
<NAME>hypoxemia</NAME>
<OUTCOME>P</OUTCOME>
<OUTCOME>A</OUTCOME>
<OUTCOME>M</OUTCOME>
<PROPERTY>position = (0,0)</PROPERTY>
</VARIABLE>
<VARIABLE TYPE="nature">
<NAME>nasal_swab_order</NAME>
<OUTCOME>P</OUTCOME>
<OUTCOME>A</OUTCOME>
<OUTCOME>M</OUTCOME>
<PROPERTY>position = (0,0)</PROPERTY>
</VARIABLE>
<VARIABLE TYPE="nature">
<NAME>diagnosis</NAME>
<OUTCOME>O</OUTCOME>
<OUTCOME>N</OUTCOME>
<OUTCOME>I</OUTCOME>
<PROPERTY>position = (0,0)</PROPERTY>
</VARIABLE>
<DEFINITION>
<FOR>unspecified_cough</FOR>
<GIVEN>diagnosis</GIVEN>
<TABLE>
0.12 0.2 0.68 
0.16666666666666666 0.6666666666666666 0.16666666666666666 
0.3333333333333333 0.3333333333333333 0.3333333333333333 
</TABLE>
</DEFINITION>
<DEFINITION>
<FOR>reported_fever</FOR>
<GIVEN>diagnosis</GIVEN>
<TABLE>
0.16 0.56 0.28 
0.3333333333333333 0.5 0.16666666666666666 
0.3333333333333333 0.3333333333333333 0.3333333333333333 
</TABLE>
</DEFINITION>
<DEFINITION>
<FOR>age_group</FOR>
<GIVEN>diagnosis</GIVEN>
<TABLE>
0.08 0.76 0.16 
0.16666666666666666 0.6666666666666666 0.16666666666666666 
0.3333333333333333 0.3333333333333333 0.3333333333333333 
</TABLE>
</DEFINITION>
<DEFINITION>
<FOR>hypoxemia</FOR>
<GIVEN>diagnosis</GIVEN>
<TABLE>
0.02 0.16 0.82 
0.16666666666666666 0.16666666666666666 0.6666666666666666 
0.3333333333333333 0.3333333333333333 0.3333333333333333 
</TABLE>
</DEFINITION>
<DEFINITION>
<FOR>nasal_swab_order</FOR>
<GIVEN>diagnosis</GIVEN>
<TABLE>
0.04 0.02 0.94 
0.16666666666666666 0.16666666666666666 0.6666666666666666 
0.3333333333333333 0.3333333333333333 0.3333333333333333 
</TABLE>
</DEFINITION>
<DEFINITION>
<FOR>diagnosis</FOR>
<TABLE>
0.9056603773584906 0.07547169811320754 0.018867924528301886 
</TABLE>
</DEFINITION>
</NETWORK>
</BIF>

