<?xml version="1.0"?>
<!-- DTD for the XMLBIF 0.3 format -->
<!DOCTYPE BIF [
	<!ELEMENT BIF ( NETWORK )*>
	      <!ATTLIST BIF VERSION CDATA #REQUIRED>
	<!ELEMENT NETWORK ( NAME, ( PROPERTY | VARIABLE | DEFINITION )* )>
	<!ELEMENT NAME (#PCDATA)>
	<!ELEMENT VARIABLE ( NAME, ( OUTCOME |  PROPERTY )* ) >
	      <!ATTLIST VARIABLE TYPE (nature|decision|utility) "nature">
	<!ELEMENT OUTCOME (#PCDATA)>
	<!ELEMENT DEFINITION ( FOR | GIVEN | TABLE | PROPERTY )* >
	<!ELEMENT FOR (#PCDATA)>
	<!ELEMENT GIVEN (#PCDATA)>
	<!ELEMENT TABLE (#PCDATA)>
	<!ELEMENT PROPERTY (#PCDATA)>
]>


<BIF VERSION="0.3">
<NETWORK>
<NAME>Network1-weka.filters.supervised.attribute.AttributeSelection-Eweka.attributeSelection.InfoGainAttributeEval-Sweka.attributeSelection.Ranker -T 1.0E-4 -N -1</NAME>
<VARIABLE TYPE="nature">
<NAME>unspecified_cough</NAME>
<OUTCOME>P</OUTCOME>
<OUTCOME>A</OUTCOME>
<OUTCOME>M</OUTCOME>
<PROPERTY>position = (0,0)</PROPERTY>
</VARIABLE>
<VARIABLE TYPE="nature">
<NAME>reported_fever</NAME>
<OUTCOME>P</OUTCOME>
<OUTCOME>A</OUTCOME>
<OUTCOME>M</OUTCOME>
<PROPERTY>position = (0,0)</PROPERTY>
</VARIABLE>
<VARIABLE TYPE="nature">
<NAME>age_group</NAME>
<OUTCOME>ls6</OUTCOME>
<OUTCOME>ge6ls65</OUTCOME>
<OUTCOME>ge65</OUTCOME>
<PROPERTY>position = (0,0)</PROPERTY>
</VARIABLE>
<VARIABLE TYPE="nature">
<NAME>hypoxemia</NAME>
<OUTCOME>P</OUTCOME>
<OUTCOME>A</OUTCOME>
<OUTCOME>M</OUTCOME>
<PROPERTY>position = (0,0)</PROPERTY>
</VARIABLE>
<VARIABLE TYPE="nature">
<NAME>nasal_swab_order</NAME>
<OUTCOME>P</OUTCOME>
<OUTCOME>A</OUTCOME>
<OUTCOME>M</OUTCOME>
<PROPERTY>position = (0,0)</PROPERTY>
</VARIABLE>
<VARIABLE TYPE="nature">
<NAME>diagnosis</NAME>
<OUTCOME>O</OUTCOME>
<OUTCOME>N</OUTCOME>
<OUTCOME>I</OUTCOME>
<PROPERTY>position = (0,0)</PROPERTY>
</VARIABLE>
<VARIABLE TYPE="nature">
<NAME>tachypnea</NAME>
<OUTCOME>P</OUTCOME>
<OUTCOME>A</OUTCOME>
<OUTCOME>M</OUTCOME>
<PROPERTY>position = (160,160)</PROPERTY>
</VARIABLE>
<VARIABLE TYPE="nature">
<NAME>respiratory_distress</NAME>
<OUTCOME>P</OUTCOME>
<OUTCOME>A</OUTCOME>
<OUTCOME>M</OUTCOME>
<PROPERTY>position = (170,170)</PROPERTY>
</VARIABLE>
<VARIABLE TYPE="nature">
<NAME>highest_measured_temperature</NAME>
<OUTCOME>P</OUTCOME>
<OUTCOME>A</OUTCOME>
<OUTCOME>I</OUTCOME>
<OUTCOME>M</OUTCOME>
<PROPERTY>position = (180,180)</PROPERTY>
</VARIABLE>
<VARIABLE TYPE="nature">
<NAME>respiratory_panel_ordered</NAME>
<OUTCOME>P</OUTCOME>
<OUTCOME>A</OUTCOME>
<OUTCOME>M</OUTCOME>
<PROPERTY>position = (190,190)</PROPERTY>
</VARIABLE>
<VARIABLE TYPE="nature">
<NAME>rsv_lab_ordered</NAME>
<OUTCOME>P</OUTCOME>
<OUTCOME>A</OUTCOME>
<OUTCOME>M</OUTCOME>
<PROPERTY>position = (200,200)</PROPERTY>
</VARIABLE>
<VARIABLE TYPE="nature">
<NAME>influenza_lab_positive</NAME>
<OUTCOME>P</OUTCOME>
<OUTCOME>A</OUTCOME>
<OUTCOME>M</OUTCOME>
<PROPERTY>position = (210,210)</PROPERTY>
</VARIABLE>
<VARIABLE TYPE="nature">
<NAME>infiltrate</NAME>
<OUTCOME>P</OUTCOME>
<OUTCOME>A</OUTCOME>
<OUTCOME>M</OUTCOME>
<PROPERTY>position = (220,220)</PROPERTY>
</VARIABLE>
<VARIABLE TYPE="nature">
<NAME>apnea</NAME>
<OUTCOME>P</OUTCOME>
<OUTCOME>A</OUTCOME>
<OUTCOME>M</OUTCOME>
<PROPERTY>position = (230,230)</PROPERTY>
</VARIABLE>
<DEFINITION>
<FOR>unspecified_cough</FOR>
<GIVEN>diagnosis</GIVEN>
<TABLE>
0.12 0.2 0.68 
0.16666666666666669 0.6666666666666667 0.16666666666666669 
0.3333333333333333 0.3333333333333333 0.3333333333333333 
</TABLE>
</DEFINITION>
<DEFINITION>
<FOR>reported_fever</FOR>
<GIVEN>diagnosis</GIVEN>
<TABLE>
0.16 0.56 0.28 
0.33333333333333337 0.5000000000000001 0.16666666666666669 
0.3333333333333333 0.3333333333333333 0.3333333333333333 
</TABLE>
</DEFINITION>
<DEFINITION>
<FOR>age_group</FOR>
<GIVEN>diagnosis</GIVEN>
<TABLE>
0.08 0.76 0.16 
0.16666666666666669 0.6666666666666667 0.16666666666666669 
0.3333333333333333 0.3333333333333333 0.3333333333333333 
</TABLE>
</DEFINITION>
<DEFINITION>
<FOR>hypoxemia</FOR>
<GIVEN>diagnosis</GIVEN>
<TABLE>
0.02 0.16 0.82 
0.16666666666666666 0.16666666666666666 0.6666666666666666 
0.3333333333333333 0.3333333333333333 0.3333333333333333 
</TABLE>
</DEFINITION>
<DEFINITION>
<FOR>nasal_swab_order</FOR>
<GIVEN>diagnosis</GIVEN>
<TABLE>
0.04 0.02 0.94 
0.16666666666666666 0.16666666666666666 0.6666666666666666 
0.3333333333333333 0.3333333333333333 0.3333333333333333 
</TABLE>
</DEFINITION>
<DEFINITION>
<FOR>diagnosis</FOR>
<TABLE>
0.9056603773584906 0.07547169811320754 0.018867924528301886 
</TABLE>
</DEFINITION>
<DEFINITION>
<FOR>tachypnea</FOR>
<GIVEN>diagnosis</GIVEN>
<TABLE>
0.04786191447657906 0.8504340173606945 0.1017040681627265 
0.04786191447657906 0.8504340173606945 0.1017040681627265 
0.04786191447657906 0.8504340173606945 0.1017040681627265 
</TABLE>
</DEFINITION>
<DEFINITION>
<FOR>respiratory_distress</FOR>
<GIVEN>diagnosis</GIVEN>
<TABLE>
0.06480935190648093 0.22729772702272977 0.7078929210707893 
0.06480935190648093 0.22729772702272977 0.7078929210707893 
0.06480935190648093 0.22729772702272977 0.7078929210707893 
</TABLE>
</DEFINITION>
<DEFINITION>
<FOR>highest_measured_temperature</FOR>
<GIVEN>diagnosis</GIVEN>
<TABLE>
0.006971846619374374 0.08664809374193769 0.7798828425774633 0.12649721706122466 
0.006971846619374374 0.08664809374193769 0.7798828425774633 0.12649721706122466 
0.006971846619374374 0.08664809374193769 0.7798828425774633 0.12649721706122466 
</TABLE>
</DEFINITION>
<DEFINITION>
<FOR>respiratory_panel_ordered</FOR>
<GIVEN>diagnosis</GIVEN>
<TABLE>
0.02093928806420582 0.001993932206304986 0.9770667797294893 
0.02093928806420582 0.001993932206304986 0.9770667797294893 
0.02093928806420582 0.001993932206304986 0.9770667797294893 
</TABLE>
</DEFINITION>
<DEFINITION>
<FOR>rsv_lab_ordered</FOR>
<GIVEN>diagnosis</GIVEN>
<TABLE>
0.03888101090628356 0.0019940518453479793 0.9591249372483684 
0.03888101090628356 0.0019940518453479793 0.9591249372483684 
0.03888101090628356 0.0019940518453479793 0.9591249372483684 
</TABLE>
</DEFINITION>
<DEFINITION>
<FOR>influenza_lab_positive</FOR>
<GIVEN>diagnosis</GIVEN>
<TABLE>
0.023930239302393026 0.013960139601396014 0.962109621096211 
0.023930239302393026 0.013960139601396014 0.962109621096211 
0.023930239302393026 0.013960139601396014 0.962109621096211 
</TABLE>
</DEFINITION>
<DEFINITION>
<FOR>infiltrate</FOR>
<GIVEN>diagnosis</GIVEN>
<TABLE>
0.013960139601396014 0.021930219302193025 0.964109641096411 
0.013960139601396014 0.021930219302193025 0.964109641096411 
0.013960139601396014 0.021930219302193025 0.964109641096411 
</TABLE>
</DEFINITION>
<DEFINITION>
<FOR>apnea</FOR>
<GIVEN>diagnosis</GIVEN>
<TABLE>
0.007975712874336524 0.01395949745809151 0.978064789667572 
0.007975712874336524 0.01395949745809151 0.978064789667572 
0.007975712874336524 0.01395949745809151 0.978064789667572 
</TABLE>
</DEFINITION>
</NETWORK>
</BIF>

